digraph Tree {
node [shape=box, fontname="helvetica"] ;
edge [fontname="helvetica"] ;
0 [label="Income <= 110.5\ngini = 0.173\nsamples = 3000\nvalue = [2713, 287]"] ;
1 [label="CCAvg <= 2.95\ngini = 0.031\nsamples = 2363\nvalue = [2326, 37]"] ;
0 -> 1 [labeldistance=2.5, labelangle=45, headlabel="True"] ;
2 [label="Income <= 106.5\ngini = 0.002\nsamples = 2204\nvalue = [2202, 2]"] ;
1 -> 2 ;
3 [label="gini = 0.0\nsamples = 2188\nvalue = [2188, 0]"] ;
2 -> 3 ;
4 [label="Family <= 3.5\ngini = 0.219\nsamples = 16\nvalue = [14, 2]"] ;
2 -> 4 ;
5 [label="gini = 0.0\nsamples = 12\nvalue = [12, 0]"] ;
4 -> 5 ;
6 [label="Experience <= 12.0\ngini = 0.5\nsamples = 4\nvalue = [2, 2]"] ;
4 -> 6 ;
7 [label="gini = 0.0\nsamples = 2\nvalue = [2, 0]"] ;
6 -> 7 ;
8 [label="gini = 0.0\nsamples = 2\nvalue = [0, 2]"] ;
6 -> 8 ;
9 [label="CD Account <= 0.5\ngini = 0.343\nsamples = 159\nvalue = [124, 35]"] ;
1 -> 9 ;
10 [label="Income <= 92.5\ngini = 0.291\nsamples = 147\nvalue = [121, 26]"] ;
9 -> 10 ;
11 [label="Age <= 26.5\ngini = 0.171\nsamples = 106\nvalue = [96, 10]"] ;
10 -> 11 ;
12 [label="gini = 0.0\nsamples = 1\nvalue = [0, 1]"] ;
11 -> 12 ;
13 [label="CCAvg <= 3.55\ngini = 0.157\nsamples = 105\nvalue = [96, 9]"] ;
11 -> 13 ;
14 [label="CCAvg <= 3.35\ngini = 0.289\nsamples = 40\nvalue = [33, 7]"] ;
13 -> 14 ;
15 [label="CCAvg <= 3.05\ngini = 0.137\nsamples = 27\nvalue = [25, 2]"] ;
14 -> 15 ;
16 [label="gini = 0.0\nsamples = 14\nvalue = [14, 0]"] ;
15 -> 16 ;
17 [label="CCAvg <= 3.15\ngini = 0.26\nsamples = 13\nvalue = [11, 2]"] ;
15 -> 17 ;
18 [label="Income <= 87.5\ngini = 0.444\nsamples = 3\nvalue = [1, 2]"] ;
17 -> 18 ;
19 [label="gini = 0.0\nsamples = 2\nvalue = [0, 2]"] ;
18 -> 19 ;
20 [label="gini = 0.0\nsamples = 1\nvalue = [1, 0]"] ;
18 -> 20 ;
21 [label="gini = 0.0\nsamples = 10\nvalue = [10, 0]"] ;
17 -> 21 ;
22 [label="Family <= 3.0\ngini = 0.473\nsamples = 13\nvalue = [8, 5]"] ;
14 -> 22 ;
23 [label="gini = 0.0\nsamples = 5\nvalue = [0, 5]"] ;
22 -> 23 ;
24 [label="gini = 0.0\nsamples = 8\nvalue = [8, 0]"] ;
22 -> 24 ;
25 [label="Income <= 81.5\ngini = 0.06\nsamples = 65\nvalue = [63, 2]"] ;
13 -> 25 ;
26 [label="gini = 0.0\nsamples = 37\nvalue = [37, 0]"] ;
25 -> 26 ;
27 [label="Income <= 83.5\ngini = 0.133\nsamples = 28\nvalue = [26, 2]"] ;
25 -> 27 ;
28 [label="Age <= 45.5\ngini = 0.298\nsamples = 11\nvalue = [9, 2]"] ;
27 -> 28 ;
29 [label="gini = 0.0\nsamples = 7\nvalue = [7, 0]"] ;
28 -> 29 ;
30 [label="Family <= 3.5\ngini = 0.5\nsamples = 4\nvalue = [2, 2]"] ;
28 -> 30 ;
31 [label="gini = 0.0\nsamples = 2\nvalue = [0, 2]"] ;
30 -> 31 ;
32 [label="gini = 0.0\nsamples = 2\nvalue = [2, 0]"] ;
30 -> 32 ;
33 [label="gini = 0.0\nsamples = 17\nvalue = [17, 0]"] ;
27 -> 33 ;
34 [label="Income <= 104.5\ngini = 0.476\nsamples = 41\nvalue = [25, 16]"] ;
10 -> 34 ;
35 [label="Online <= 0.5\ngini = 0.497\nsamples = 26\nvalue = [12, 14]"] ;
34 -> 35 ;
36 [label="Experience <= 36.0\ngini = 0.426\nsamples = 13\nvalue = [4, 9]"] ;
35 -> 36 ;
37 [label="Mortgage <= 183.0\ngini = 0.298\nsamples = 11\nvalue = [2, 9]"] ;
36 -> 37 ;
38 [label="gini = 0.0\nsamples = 8\nvalue = [0, 8]"] ;
37 -> 38 ;
39 [label="Mortgage <= 316.0\ngini = 0.444\nsamples = 3\nvalue = [2, 1]"] ;
37 -> 39 ;
40 [label="gini = 0.0\nsamples = 2\nvalue = [2, 0]"] ;
39 -> 40 ;
41 [label="gini = 0.0\nsamples = 1\nvalue = [0, 1]"] ;
39 -> 41 ;
42 [label="gini = 0.0\nsamples = 2\nvalue = [2, 0]"] ;
36 -> 42 ;
43 [label="Family <= 3.5\ngini = 0.473\nsamples = 13\nvalue = [8, 5]"] ;
35 -> 43 ;
44 [label="CCAvg <= 3.95\ngini = 0.397\nsamples = 11\nvalue = [8, 3]"] ;
43 -> 44 ;
45 [label="Income <= 99.5\ngini = 0.5\nsamples = 6\nvalue = [3, 3]"] ;
44 -> 45 ;
46 [label="Income <= 93.5\ngini = 0.375\nsamples = 4\nvalue = [3, 1]"] ;
45 -> 46 ;
47 [label="gini = 0.0\nsamples = 1\nvalue = [0, 1]"] ;
46 -> 47 ;
48 [label="gini = 0.0\nsamples = 3\nvalue = [3, 0]"] ;
46 -> 48 ;
49 [label="gini = 0.0\nsamples = 2\nvalue = [0, 2]"] ;
45 -> 49 ;
50 [label="gini = 0.0\nsamples = 5\nvalue = [5, 0]"] ;
44 -> 50 ;
51 [label="gini = 0.0\nsamples = 2\nvalue = [0, 2]"] ;
43 -> 51 ;
52 [label="Age <= 61.0\ngini = 0.231\nsamples = 15\nvalue = [13, 2]"] ;
34 -> 52 ;
53 [label="Family <= 3.5\ngini = 0.133\nsamples = 14\nvalue = [13, 1]"] ;
52 -> 53 ;
54 [label="gini = 0.0\nsamples = 13\nvalue = [13, 0]"] ;
53 -> 54 ;
55 [label="gini = 0.0\nsamples = 1\nvalue = [0, 1]"] ;
53 -> 55 ;
56 [label="gini = 0.0\nsamples = 1\nvalue = [0, 1]"] ;
52 -> 56 ;
57 [label="Family <= 1.5\ngini = 0.375\nsamples = 12\nvalue = [3, 9]"] ;
9 -> 57 ;
58 [label="Online <= 0.5\ngini = 0.375\nsamples = 4\nvalue = [3, 1]"] ;
57 -> 58 ;
59 [label="gini = 0.0\nsamples = 1\nvalue = [0, 1]"] ;
58 -> 59 ;
60 [label="gini = 0.0\nsamples = 3\nvalue = [3, 0]"] ;
58 -> 60 ;
61 [label="gini = 0.0\nsamples = 8\nvalue = [0, 8]"] ;
57 -> 61 ;
62 [label="Family <= 2.5\ngini = 0.477\nsamples = 637\nvalue = [387, 250]"] ;
0 -> 62 [labeldistance=2.5, labelangle=-45, headlabel="False"] ;
63 [label="CD Account <= 0.5\ngini = 0.351\nsamples = 481\nvalue = [372, 109]"] ;
62 -> 63 ;
64 [label="CCAvg <= 8.85\ngini = 0.294\nsamples = 435\nvalue = [357, 78]"] ;
63 -> 64 ;
65 [label="CCAvg <= 6.25\ngini = 0.287\nsamples = 432\nvalue = [357, 75]"] ;
64 -> 65 ;
66 [label="CCAvg <= 1.05\ngini = 0.325\nsamples = 343\nvalue = [273, 70]"] ;
65 -> 66 ;
67 [label="Income <= 185.5\ngini = 0.134\nsamples = 83\nvalue = [77, 6]"] ;
66 -> 67 ;
68 [label="Age <= 52.5\ngini = 0.095\nsamples = 80\nvalue = [76, 4]"] ;
67 -> 68 ;
69 [label="Mortgage <= 401.0\ngini = 0.034\nsamples = 58\nvalue = [57, 1]"] ;
68 -> 69 ;
70 [label="gini = 0.0\nsamples = 55\nvalue = [55, 0]"] ;
69 -> 70 ;
71 [label="CCAvg <= 0.6\ngini = 0.444\nsamples = 3\nvalue = [2, 1]"] ;
69 -> 71 ;
72 [label="gini = 0.0\nsamples = 2\nvalue = [2, 0]"] ;
71 -> 72 ;
73 [label="gini = 0.0\nsamples = 1\nvalue = [0, 1]"] ;
71 -> 73 ;
74 [label="CCAvg <= 0.25\ngini = 0.236\nsamples = 22\nvalue = [19, 3]"] ;
68 -> 74 ;
75 [label="Income <= 117.5\ngini = 0.444\nsamples = 3\nvalue = [1, 2]"] ;
74 -> 75 ;
76 [label="gini = 0.0\nsamples = 1\nvalue = [1, 0]"] ;
75 -> 76 ;
77 [label="gini = 0.0\nsamples = 2\nvalue = [0, 2]"] ;
75 -> 77 ;
78 [label="Experience <= 27.5\ngini = 0.1\nsamples = 19\nvalue = [18, 1]"] ;
74 -> 78 ;
79 [label="CCAvg <= 0.95\ngini = 0.5\nsamples = 2\nvalue = [1, 1]"] ;
78 -> 79 ;
80 [label="gini = 0.0\nsamples = 1\nvalue = [0, 1]"] ;
79 -> 80 ;
81 [label="gini = 0.0\nsamples = 1\nvalue = [1, 0]"] ;
79 -> 81 ;
82 [label="gini = 0.0\nsamples = 17\nvalue = [17, 0]"] ;
78 -> 82 ;
83 [label="Online <= 0.5\ngini = 0.444\nsamples = 3\nvalue = [1, 2]"] ;
67 -> 83 ;
84 [label="gini = 0.0\nsamples = 1\nvalue = [1, 0]"] ;
83 -> 84 ;
85 [label="gini = 0.0\nsamples = 2\nvalue = [0, 2]"] ;
83 -> 85 ;
86 [label="CCAvg <= 1.25\ngini = 0.371\nsamples = 260\nvalue = [196, 64]"] ;
66 -> 86 ;
87 [label="gini = 0.0\nsamples = 2\nvalue = [0, 2]"] ;
86 -> 87 ;
88 [label="Income <= 162.5\ngini = 0.365\nsamples = 258\nvalue = [196, 62]"] ;
86 -> 88 ;
89 [label="Securities Account <= 0.5\ngini = 0.327\nsamples = 199\nvalue = [158, 41]"] ;
88 -> 89 ;
90 [label="CCAvg <= 4.05\ngini = 0.349\nsamples = 182\nvalue = [141, 41]"] ;
89 -> 90 ;
91 [label="Income <= 131.5\ngini = 0.304\nsamples = 123\nvalue = [100, 23]"] ;
90 -> 91 ;
92 [label="Experience <= 31.5\ngini = 0.225\nsamples = 62\nvalue = [54, 8]"] ;
91 -> 92 ;
93 [label="Age <= 59.0\ngini = 0.314\nsamples = 41\nvalue = [33, 8]"] ;
92 -> 93 ;
94 [label="Mortgage <= 46.0\ngini = 0.289\nsamples = 40\nvalue = [33, 7]"] ;
93 -> 94 ;
95 [label="Age <= 28.5\ngini = 0.358\nsamples = 30\nvalue = [23, 7]"] ;
94 -> 95 ;
96 [label="Online <= 0.5\ngini = 0.444\nsamples = 3\nvalue = [1, 2]"] ;
95 -> 96 ;
97 [label="gini = 0.0\nsamples = 1\nvalue = [1, 0]"] ;
96 -> 97 ;
98 [label="gini = 0.0\nsamples = 2\nvalue = [0, 2]"] ;
96 -> 98 ;
99 [label="Age <= 33.5\ngini = 0.302\nsamples = 27\nvalue = [22, 5]"] ;
95 -> 99 ;
100 [label="gini = 0.0\nsamples = 6\nvalue = [6, 0]"] ;
99 -> 100 ;
101 [label="Age <= 36.5\ngini = 0.363\nsamples = 21\nvalue = [16, 5]"] ;
99 -> 101 ;
102 [label="gini = 0.0\nsamples = 2\nvalue = [0, 2]"] ;
101 -> 102 ;
103 [label="Income <= 111.5\ngini = 0.266\nsamples = 19\nvalue = [16, 3]"] ;
101 -> 103 ;
104 [label="gini = 0.0\nsamples = 1\nvalue = [0, 1]"] ;
103 -> 104 ;
105 [label="Age <= 43.0\ngini = 0.198\nsamples = 18\nvalue = [16, 2]"] ;
103 -> 105 ;
106 [label="gini = 0.0\nsamples = 8\nvalue = [8, 0]"] ;
105 -> 106 ;
107 [label="Experience <= 18.0\ngini = 0.32\nsamples = 10\nvalue = [8, 2]"] ;
105 -> 107 ;
108 [label="gini = 0.0\nsamples = 1\nvalue = [0, 1]"] ;
107 -> 108 ;
109 [label="Family <= 1.5\ngini = 0.198\nsamples = 9\nvalue = [8, 1]"] ;
107 -> 109 ;
110 [label="Online <= 0.5\ngini = 0.444\nsamples = 3\nvalue = [2, 1]"] ;
109 -> 110 ;
111 [label="gini = 0.0\nsamples = 2\nvalue = [2, 0]"] ;
110 -> 111 ;
112 [label="gini = 0.0\nsamples = 1\nvalue = [0, 1]"] ;
110 -> 112 ;
113 [label="gini = 0.0\nsamples = 6\nvalue = [6, 0]"] ;
109 -> 113 ;
114 [label="gini = 0.0\nsamples = 10\nvalue = [10, 0]"] ;
94 -> 114 ;
115 [label="gini = 0.0\nsamples = 1\nvalue = [0, 1]"] ;
93 -> 115 ;
116 [label="gini = 0.0\nsamples = 21\nvalue = [21, 0]"] ;
92 -> 116 ;
117 [label="Age <= 47.5\ngini = 0.371\nsamples = 61\nvalue = [46, 15]"] ;
91 -> 117 ;
118 [label="CCAvg <= 2.95\ngini = 0.266\nsamples = 38\nvalue = [32, 6]"] ;
117 -> 118 ;
119 [label="Income <= 134.5\ngini = 0.457\nsamples = 17\nvalue = [11, 6]"] ;
118 -> 119 ;
120 [label="gini = 0.0\nsamples = 3\nvalue = [0, 3]"] ;
119 -> 120 ;
121 [label="CCAvg <= 2.65\ngini = 0.337\nsamples = 14\nvalue = [11, 3]"] ;
119 -> 121 ;
122 [label="CCAvg <= 1.6\ngini = 0.26\nsamples = 13\nvalue = [11, 2]"] ;
121 -> 122 ;
123 [label="Age <= 36.0\ngini = 0.444\nsamples = 6\nvalue = [4, 2]"] ;
122 -> 123 ;
124 [label="gini = 0.0\nsamples = 3\nvalue = [3, 0]"] ;
123 -> 124 ;
125 [label="Income <= 147.0\ngini = 0.444\nsamples = 3\nvalue = [1, 2]"] ;
123 -> 125 ;
126 [label="gini = 0.0\nsamples = 2\nvalue = [0, 2]"] ;
125 -> 126 ;
127 [label="gini = 0.0\nsamples = 1\nvalue = [1, 0]"] ;
125 -> 127 ;
128 [label="gini = 0.0\nsamples = 7\nvalue = [7, 0]"] ;
122 -> 128 ;
129 [label="gini = 0.0\nsamples = 1\nvalue = [0, 1]"] ;
121 -> 129 ;
130 [label="gini = 0.0\nsamples = 21\nvalue = [21, 0]"] ;
118 -> 130 ;
131 [label="Experience <= 32.5\ngini = 0.476\nsamples = 23\nvalue = [14, 9]"] ;
117 -> 131 ;
132 [label="Online <= 0.5\ngini = 0.444\nsamples = 9\nvalue = [3, 6]"] ;
131 -> 132 ;
133 [label="gini = 0.0\nsamples = 4\nvalue = [0, 4]"] ;
132 -> 133 ;
134 [label="Income <= 146.0\ngini = 0.48\nsamples = 5\nvalue = [3, 2]"] ;
132 -> 134 ;
135 [label="gini = 0.0\nsamples = 2\nvalue = [2, 0]"] ;
134 -> 135 ;
136 [label="Income <= 157.5\ngini = 0.444\nsamples = 3\nvalue = [1, 2]"] ;
134 -> 136 ;
137 [label="gini = 0.0\nsamples = 2\nvalue = [0, 2]"] ;
136 -> 137 ;
138 [label="gini = 0.0\nsamples = 1\nvalue = [1, 0]"] ;
136 -> 138 ;
139 [label="Income <= 138.5\ngini = 0.337\nsamples = 14\nvalue = [11, 3]"] ;
131 -> 139 ;
140 [label="Family <= 1.5\ngini = 0.5\nsamples = 4\nvalue = [2, 2]"] ;
139 -> 140 ;
141 [label="gini = 0.0\nsamples = 2\nvalue = [2, 0]"] ;
140 -> 141 ;
142 [label="gini = 0.0\nsamples = 2\nvalue = [0, 2]"] ;
140 -> 142 ;
143 [label="Experience <= 35.5\ngini = 0.18\nsamples = 10\nvalue = [9, 1]"] ;
139 -> 143 ;
144 [label="CCAvg <= 2.2\ngini = 0.444\nsamples = 3\nvalue = [2, 1]"] ;
143 -> 144 ;
145 [label="gini = 0.0\nsamples = 1\nvalue = [0, 1]"] ;
144 -> 145 ;
146 [label="gini = 0.0\nsamples = 2\nvalue = [2, 0]"] ;
144 -> 146 ;
147 [label="gini = 0.0\nsamples = 7\nvalue = [7, 0]"] ;
143 -> 147 ;
148 [label="Income <= 148.5\ngini = 0.424\nsamples = 59\nvalue = [41, 18]"] ;
90 -> 148 ;
149 [label="Family <= 1.5\ngini = 0.473\nsamples = 47\nvalue = [29, 18]"] ;
148 -> 149 ;
150 [label="CCAvg <= 5.75\ngini = 0.375\nsamples = 28\nvalue = [21, 7]"] ;
149 -> 150 ;
151 [label="Age <= 61.0\ngini = 0.311\nsamples = 26\nvalue = [21, 5]"] ;
150 -> 151 ;
152 [label="Income <= 124.5\ngini = 0.269\nsamples = 25\nvalue = [21, 4]"] ;
151 -> 152 ;
153 [label="gini = 0.0\nsamples = 8\nvalue = [8, 0]"] ;
152 -> 153 ;
154 [label="Income <= 138.5\ngini = 0.36\nsamples = 17\nvalue = [13, 4]"] ;
152 -> 154 ;
155 [label="CCAvg <= 4.683\ngini = 0.48\nsamples = 10\nvalue = [6, 4]"] ;
154 -> 155 ;
156 [label="gini = 0.0\nsamples = 2\nvalue = [0, 2]"] ;
155 -> 156 ;
157 [label="Experience <= 27.0\ngini = 0.375\nsamples = 8\nvalue = [6, 2]"] ;
155 -> 157 ;
158 [label="CCAvg <= 4.95\ngini = 0.245\nsamples = 7\nvalue = [6, 1]"] ;
157 -> 158 ;
159 [label="Age <= 43.5\ngini = 0.5\nsamples = 2\nvalue = [1, 1]"] ;
158 -> 159 ;
160 [label="gini = 0.0\nsamples = 1\nvalue = [1, 0]"] ;
159 -> 160 ;
161 [label="gini = 0.0\nsamples = 1\nvalue = [0, 1]"] ;
159 -> 161 ;
162 [label="gini = 0.0\nsamples = 5\nvalue = [5, 0]"] ;
158 -> 162 ;
163 [label="gini = 0.0\nsamples = 1\nvalue = [0, 1]"] ;
157 -> 163 ;
164 [label="gini = 0.0\nsamples = 7\nvalue = [7, 0]"] ;
154 -> 164 ;
165 [label="gini = 0.0\nsamples = 1\nvalue = [0, 1]"] ;
151 -> 165 ;
166 [label="gini = 0.0\nsamples = 2\nvalue = [0, 2]"] ;
150 -> 166 ;
167 [label="CCAvg <= 5.7\ngini = 0.488\nsamples = 19\nvalue = [8, 11]"] ;
149 -> 167 ;
168 [label="Age <= 34.5\ngini = 0.391\nsamples = 15\nvalue = [4, 11]"] ;
167 -> 168 ;
169 [label="CCAvg <= 4.267\ngini = 0.444\nsamples = 6\nvalue = [4, 2]"] ;
168 -> 169 ;
170 [label="gini = 0.0\nsamples = 2\nvalue = [0, 2]"] ;
169 -> 170 ;
171 [label="gini = 0.0\nsamples = 4\nvalue = [4, 0]"] ;
169 -> 171 ;
172 [label="gini = 0.0\nsamples = 9\nvalue = [0, 9]"] ;
168 -> 172 ;
173 [label="gini = 0.0\nsamples = 4\nvalue = [4, 0]"] ;
167 -> 173 ;
174 [label="gini = 0.0\nsamples = 12\nvalue = [12, 0]"] ;
148 -> 174 ;
175 [label="gini = 0.0\nsamples = 17\nvalue = [17, 0]"] ;
89 -> 175 ;
176 [label="CreditCard <= 0.5\ngini = 0.458\nsamples = 59\nvalue = [38, 21]"] ;
88 -> 176 ;
177 [label="Income <= 184.5\ngini = 0.49\nsamples = 49\nvalue = [28, 21]"] ;
176 -> 177 ;
178 [label="Mortgage <= 393.5\ngini = 0.496\nsamples = 33\nvalue = [15, 18]"] ;
177 -> 178 ;
179 [label="Family <= 1.5\ngini = 0.48\nsamples = 30\nvalue = [12, 18]"] ;
178 -> 179 ;
180 [label="Income <= 172.5\ngini = 0.492\nsamples = 16\nvalue = [9, 7]"] ;
179 -> 180 ;
181 [label="gini = 0.0\nsamples = 3\nvalue = [0, 3]"] ;
180 -> 181 ;
182 [label="CCAvg <= 3.5\ngini = 0.426\nsamples = 13\nvalue = [9, 4]"] ;
180 -> 182 ;
183 [label="Experience <= 18.0\ngini = 0.49\nsamples = 7\nvalue = [3, 4]"] ;
182 -> 183 ;
184 [label="gini = 0.0\nsamples = 3\nvalue = [0, 3]"] ;
183 -> 184 ;
185 [label="Income <= 176.0\ngini = 0.375\nsamples = 4\nvalue = [3, 1]"] ;
183 -> 185 ;
186 [label="CCAvg <= 2.65\ngini = 0.5\nsamples = 2\nvalue = [1, 1]"] ;
185 -> 186 ;
187 [label="gini = 0.0\nsamples = 1\nvalue = [1, 0]"] ;
186 -> 187 ;
188 [label="gini = 0.0\nsamples = 1\nvalue = [0, 1]"] ;
186 -> 188 ;
189 [label="gini = 0.0\nsamples = 2\nvalue = [2, 0]"] ;
185 -> 189 ;
190 [label="gini = 0.0\nsamples = 6\nvalue = [6, 0]"] ;
182 -> 190 ;
191 [label="Income <= 166.5\ngini = 0.337\nsamples = 14\nvalue = [3, 11]"] ;
179 -> 191 ;
192 [label="Income <= 164.0\ngini = 0.444\nsamples = 3\nvalue = [2, 1]"] ;
191 -> 192 ;
193 [label="gini = 0.0\nsamples = 1\nvalue = [0, 1]"] ;
192 -> 193 ;
194 [label="gini = 0.0\nsamples = 2\nvalue = [2, 0]"] ;
192 -> 194 ;
195 [label="Experience <= 20.5\ngini = 0.165\nsamples = 11\nvalue = [1, 10]"] ;
191 -> 195 ;
196 [label="Experience <= 14.0\ngini = 0.32\nsamples = 5\nvalue = [1, 4]"] ;
195 -> 196 ;
197 [label="gini = 0.0\nsamples = 4\nvalue = [0, 4]"] ;
196 -> 197 ;
198 [label="gini = 0.0\nsamples = 1\nvalue = [1, 0]"] ;
196 -> 198 ;
199 [label="gini = 0.0\nsamples = 6\nvalue = [0, 6]"] ;
195 -> 199 ;
200 [label="gini = 0.0\nsamples = 3\nvalue = [3, 0]"] ;
178 -> 200 ;
201 [label="CCAvg <= 4.725\ngini = 0.305\nsamples = 16\nvalue = [13, 3]"] ;
177 -> 201 ;
202 [label="Experience <= 8.5\ngini = 0.231\nsamples = 15\nvalue = [13, 2]"] ;
201 -> 202 ;
203 [label="CCAvg <= 4.45\ngini = 0.5\nsamples = 4\nvalue = [2, 2]"] ;
202 -> 203 ;
204 [label="gini = 0.0\nsamples = 2\nvalue = [0, 2]"] ;
203 -> 204 ;
205 [label="gini = 0.0\nsamples = 2\nvalue = [2, 0]"] ;
203 -> 205 ;
206 [label="gini = 0.0\nsamples = 11\nvalue = [11, 0]"] ;
202 -> 206 ;
207 [label="gini = 0.0\nsamples = 1\nvalue = [0, 1]"] ;
201 -> 207 ;
208 [label="gini = 0.0\nsamples = 10\nvalue = [10, 0]"] ;
176 -> 208 ;
209 [label="Income <= 166.5\ngini = 0.106\nsamples = 89\nvalue = [84, 5]"] ;
65 -> 209 ;
210 [label="gini = 0.0\nsamples = 51\nvalue = [51, 0]"] ;
209 -> 210 ;
211 [label="Age <= 55.0\ngini = 0.229\nsamples = 38\nvalue = [33, 5]"] ;
209 -> 211 ;
212 [label="Age <= 45.5\ngini = 0.193\nsamples = 37\nvalue = [33, 4]"] ;
211 -> 212 ;
213 [label="Income <= 169.0\ngini = 0.074\nsamples = 26\nvalue = [25, 1]"] ;
212 -> 213 ;
214 [label="Securities Account <= 0.5\ngini = 0.5\nsamples = 2\nvalue = [1, 1]"] ;
213 -> 214 ;
215 [label="gini = 0.0\nsamples = 1\nvalue = [0, 1]"] ;
214 -> 215 ;
216 [label="gini = 0.0\nsamples = 1\nvalue = [1, 0]"] ;
214 -> 216 ;
217 [label="gini = 0.0\nsamples = 24\nvalue = [24, 0]"] ;
213 -> 217 ;
218 [label="CCAvg <= 7.5\ngini = 0.397\nsamples = 11\nvalue = [8, 3]"] ;
212 -> 218 ;
219 [label="CreditCard <= 0.5\ngini = 0.444\nsamples = 3\nvalue = [1, 2]"] ;
218 -> 219 ;
220 [label="gini = 0.0\nsamples = 2\nvalue = [0, 2]"] ;
219 -> 220 ;
221 [label="gini = 0.0\nsamples = 1\nvalue = [1, 0]"] ;
219 -> 221 ;
222 [label="Age <= 46.5\ngini = 0.219\nsamples = 8\nvalue = [7, 1]"] ;
218 -> 222 ;
223 [label="Securities Account <= 0.5\ngini = 0.5\nsamples = 2\nvalue = [1, 1]"] ;
222 -> 223 ;
224 [label="gini = 0.0\nsamples = 1\nvalue = [0, 1]"] ;
223 -> 224 ;
225 [label="gini = 0.0\nsamples = 1\nvalue = [1, 0]"] ;
223 -> 225 ;
226 [label="gini = 0.0\nsamples = 6\nvalue = [6, 0]"] ;
222 -> 226 ;
227 [label="gini = 0.0\nsamples = 1\nvalue = [0, 1]"] ;
211 -> 227 ;
228 [label="gini = 0.0\nsamples = 3\nvalue = [0, 3]"] ;
64 -> 228 ;
229 [label="Income <= 148.5\ngini = 0.44\nsamples = 46\nvalue = [15, 31]"] ;
63 -> 229 ;
230 [label="Age <= 40.5\ngini = 0.488\nsamples = 19\nvalue = [11, 8]"] ;
229 -> 230 ;
231 [label="Mortgage <= 268.0\ngini = 0.42\nsamples = 10\nvalue = [3, 7]"] ;
230 -> 231 ;
232 [label="Family <= 1.5\ngini = 0.219\nsamples = 8\nvalue = [1, 7]"] ;
231 -> 232 ;
233 [label="gini = 0.0\nsamples = 5\nvalue = [0, 5]"] ;
232 -> 233 ;
234 [label="Age <= 34.0\ngini = 0.444\nsamples = 3\nvalue = [1, 2]"] ;
232 -> 234 ;
235 [label="gini = 0.0\nsamples = 1\nvalue = [1, 0]"] ;
234 -> 235 ;
236 [label="gini = 0.0\nsamples = 2\nvalue = [0, 2]"] ;
234 -> 236 ;
237 [label="gini = 0.0\nsamples = 2\nvalue = [2, 0]"] ;
231 -> 237 ;
238 [label="Experience <= 35.5\ngini = 0.198\nsamples = 9\nvalue = [8, 1]"] ;
230 -> 238 ;
239 [label="gini = 0.0\nsamples = 8\nvalue = [8, 0]"] ;
238 -> 239 ;
240 [label="gini = 0.0\nsamples = 1\nvalue = [0, 1]"] ;
238 -> 240 ;
241 [label="Income <= 208.0\ngini = 0.252\nsamples = 27\nvalue = [4, 23]"] ;
229 -> 241 ;
242 [label="Experience <= 36.5\ngini = 0.204\nsamples = 26\nvalue = [3, 23]"] ;
241 -> 242 ;
243 [label="Age <= 33.0\ngini = 0.091\nsamples = 21\nvalue = [1, 20]"] ;
242 -> 243 ;
244 [label="Mortgage <= 136.0\ngini = 0.444\nsamples = 3\nvalue = [1, 2]"] ;
243 -> 244 ;
245 [label="gini = 0.0\nsamples = 1\nvalue = [1, 0]"] ;
244 -> 245 ;
246 [label="gini = 0.0\nsamples = 2\nvalue = [0, 2]"] ;
244 -> 246 ;
247 [label="gini = 0.0\nsamples = 18\nvalue = [0, 18]"] ;
243 -> 247 ;
248 [label="Experience <= 38.5\ngini = 0.48\nsamples = 5\nvalue = [2, 3]"] ;
242 -> 248 ;
249 [label="gini = 0.0\nsamples = 2\nvalue = [2, 0]"] ;
248 -> 249 ;
250 [label="gini = 0.0\nsamples = 3\nvalue = [0, 3]"] ;
248 -> 250 ;
251 [label="gini = 0.0\nsamples = 1\nvalue = [1, 0]"] ;
241 -> 251 ;
252 [label="Income <= 116.5\ngini = 0.174\nsamples = 156\nvalue = [15, 141]"] ;
62 -> 252 ;
253 [label="CCAvg <= 2.7\ngini = 0.494\nsamples = 27\nvalue = [15, 12]"] ;
252 -> 253 ;
254 [label="CCAvg <= 1.75\ngini = 0.305\nsamples = 16\nvalue = [13, 3]"] ;
253 -> 254 ;
255 [label="Family <= 3.5\ngini = 0.5\nsamples = 6\nvalue = [3, 3]"] ;
254 -> 255 ;
256 [label="gini = 0.0\nsamples = 2\nvalue = [2, 0]"] ;
255 -> 256 ;
257 [label="Experience <= 36.0\ngini = 0.375\nsamples = 4\nvalue = [1, 3]"] ;
255 -> 257 ;
258 [label="gini = 0.0\nsamples = 3\nvalue = [0, 3]"] ;
257 -> 258 ;
259 [label="gini = 0.0\nsamples = 1\nvalue = [1, 0]"] ;
257 -> 259 ;
260 [label="gini = 0.0\nsamples = 10\nvalue = [10, 0]"] ;
254 -> 260 ;
261 [label="Age <= 60.5\ngini = 0.298\nsamples = 11\nvalue = [2, 9]"] ;
253 -> 261 ;
262 [label="gini = 0.0\nsamples = 9\nvalue = [0, 9]"] ;
261 -> 262 ;
263 [label="gini = 0.0\nsamples = 2\nvalue = [2, 0]"] ;
261 -> 263 ;
264 [label="gini = 0.0\nsamples = 129\nvalue = [0, 129]"] ;
252 -> 264 ;
}